digraph Tree {
node [shape=box, style="filled, rounded", color="black", fontname=helvetica] ;
edge [fontname=helvetica] ;
0 [label="SSLfinal_State <= 0.5\ngini = 0.49\nsamples = 5000\nvalue = [2202, 2798]\nclass = e", fillcolor="#d5eaf9"] ;
1 [label="URL_of_Anchor <= -0.5\ngini = 0.19\nsamples = 2135\nvalue = [1904, 231]\nclass = R", fillcolor="#e89051"] ;
0 -> 1 [labeldistance=2.5, labelangle=45, headlabel="True"] ;
2 [label="gini = 0.0\nsamples = 1367\nvalue = [1367, 0]\nclass = R", fillcolor="#e58139"] ;
1 -> 2 ;
3 [label="Links_in_tags <= -0.5\ngini = 0.42\nsamples = 768\nvalue = [537, 231]\nclass = R", fillcolor="#f0b78e"] ;
1 -> 3 ;
4 [label="gini = 0.19\nsamples = 395\nvalue = [354, 41]\nclass = R", fillcolor="#e89050"] ;
3 -> 4 ;
5 [label="gini = 0.5\nsamples = 373\nvalue = [183, 190]\nclass = e", fillcolor="#f8fbfe"] ;
3 -> 5 ;
6 [label="URL_of_Anchor <= -0.5\ngini = 0.19\nsamples = 2865\nvalue = [298, 2567]\nclass = e", fillcolor="#50a8e8"] ;
0 -> 6 [labeldistance=2.5, labelangle=-45, headlabel="False"] ;
7 [label="Prefix_Suffix <= 0.0\ngini = 0.28\nsamples = 111\nvalue = [92, 19]\nclass = R", fillcolor="#ea9b62"] ;
6 -> 7 ;
8 [label="gini = 0.18\nsamples = 102\nvalue = [92, 10]\nclass = R", fillcolor="#e88f4f"] ;
7 -> 8 ;
9 [label="gini = 0.0\nsamples = 9\nvalue = [0, 9]\nclass = e", fillcolor="#399de5"] ;
7 -> 9 ;
10 [label="web_traffic <= 0.5\ngini = 0.14\nsamples = 2754\nvalue = [206, 2548]\nclass = e", fillcolor="#49a5e7"] ;
6 -> 10 ;
11 [label="gini = 0.27\nsamples = 898\nvalue = [144, 754]\nclass = e", fillcolor="#5fb0ea"] ;
10 -> 11 ;
12 [label="gini = 0.06\nsamples = 1856\nvalue = [62, 1794]\nclass = e", fillcolor="#40a0e6"] ;
10 -> 12 ;
}